digraph Tree {
node [shape=box, style="rounded", color="black", fontname=helvetica] ;
edge [fontname=helvetica] ;
0 [label=<x1 &le; -0.072<br/>gini = 0.665<br/>samples = 80<br/>value = [24, 27, 29]<br/>class = c3>] ;
1 [label=<x2 &le; 4.386<br/>gini = 0.064<br/>samples = 30<br/>value = [1, 0, 29]<br/>class = c3>] ;
0 -> 1 [labeldistance=2.5, labelangle=45, headlabel="True"] ;
2 [label=<gini = 0.0<br/>samples = 29<br/>value = [0, 0, 29]<br/>class = c3>] ;
1 -> 2 ;
3 [label=<gini = 0.0<br/>samples = 1<br/>value = [1, 0, 0]<br/>class = c1>] ;
1 -> 3 ;
4 [label=<x2 &le; 2.59<br/>gini = 0.497<br/>samples = 50<br/>value = [23, 27, 0]<br/>class = c2>] ;
0 -> 4 [labeldistance=2.5, labelangle=-45, headlabel="False"] ;
5 [label=<gini = 0.0<br/>samples = 27<br/>value = [0, 27, 0]<br/>class = c2>] ;
4 -> 5 ;
6 [label=<gini = 0.0<br/>samples = 23<br/>value = [23, 0, 0]<br/>class = c1>] ;
4 -> 6 ;
}
